{"nm":"newScene","ddd":0,"h":685,"w":778,"meta":{"g":"LottieFiles Figma v43"},"layers":[{"ty":4,"nm":"","sr":1,"st":0,"op":145,"ip":0,"hd":false,"ddd":0,"bm":0,"hasMask":false,"ao":0,"ks":{"a":{"a":0,"k":[0,0]},"s":{"a":0,"k":[100,100]},"sk":{"a":0,"k":0},"p":{"a":0,"k":[0,0]},"r":{"a":0,"k":0},"sa":{"a":0,"k":0},"o":{"a":0,"k":100}},"ef":[],"shapes":[{"ty":"gr","bm":0,"hd":false,"nm":"","it":[{"ty":"sh","bm":0,"hd":false,"nm":"","d":1,"ks":{"a":0,"k":{"c":false,"i":[[0,0],[55.99400000000003,55.75300000000004],[-33.403999999999996,-113.28199999999998],[41.39799999999997,53.12600000000003],[41.111999999999995,-17.709000000000003],[-94.50200000000001,11.711000000000013],[59.09900000000002,161.09300000000002],[-112.67899999999997,-28.182000000000016],[68.988,0],[-17.416000000000054,-51.12700000000001],[21.698000000000036,9.997000000000014],[-102.21100000000001,-27.70599999999996],[-106.207,-88.54400000000004],[23.697000000000003,53.12699999999998],[-25.125,-88.202],[212.13,-55.1258],[-37.400999999999954,29.70599999999999],[178.72499999999997,-45.128899999999994],[-42.75300000000004,-8.171999999999997],[243.53500000000003,-212.3173],[135.614,63.12299999999999],[-33.4039,-107.96600000000001],[15.702999999999989,68.83500000000004],[-167.0195,-149.38300000000004]],"o":[[3.90199999999993,-56.36400000000003],[-100.48599999999999,-100.053],[37.33699999999999,126.62300000000005],[-41.399,-53.12699999999995],[-41.113,17.709000000000003],[94.50200000000001,-11.711000000000013],[-47.27999999999999,-128.87399999999997],[79.488,19.881],[-80.08300000000003,0],[17.414999999999964,51.12700000000001],[-21.69799999999998,-9.997000000000014],[102.21000000000004,27.706000000000017],[84.96600000000001,70.83499999999998],[-23.697000000000003,-53.126000000000005],[31.404999999999973,110.25100000000003],[-212.13000000000005,55.125600000000006],[37.40100000000007,-29.705000000000013],[-178.726,45.1288],[123.62299999999993,23.62899999999999],[-210.04809999999998,183.12269999999995],[-135.615,-63.123999999999995],[33.403999999999996,107.96700000000001],[-11.981000000000009,-52.52099999999999],[0,0]],"v":[[536.517,677],[474.5,486],[638.5,452],[391.196,499.912],[210.186,499.912],[227.887,334.82],[167.075,324.823],[446.012,248.275],[446.012,185],[391.196,334.82],[338.092,385.947],[434.307,324.823],[717.241,397.658],[740.938,248.275],[652.432,259.986],[603.325,77.1854],[621.026,152.019],[463.714,32.0564],[391.196,120.315],[167.075,90.8953],[243.59,120.315],[19.4693,248.275],[117.968,301.402],[74.5711,437.074]]}}},{"ty":"st","bm":0,"hd":false,"nm":"","lc":2,"lj":2,"ml":4,"o":{"a":0,"k":100},"w":{"a":0,"k":15},"c":{"a":0,"k":[0,0,0]}},{"ty":"tm","bm":0,"hd":false,"nm":"","e":{"a":1,"k":[{"o":{"x":0.167,"y":0.167},"i":{"x":0.833,"y":0.833},"s":[0],"t":0},{"s":[100],"t":120}]},"o":{"a":0,"k":0},"s":{"a":null,"k":0},"m":1},{"ty":"tr","a":{"a":0,"k":[0,0]},"s":{"a":0,"k":[100,100]},"sk":{"a":0,"k":0},"p":{"a":0,"k":[0,0]},"r":{"a":0,"k":0},"sa":{"a":0,"k":0},"o":{"a":0,"k":100}}]}],"ind":1}],"v":"5.7.0","fr":60,"op":145,"ip":0,"assets":[]}